|--- baseline_A_ANY_QUERY_AA_TC---AA-0_ANCOUNT-0_ARCOUNT-0_NSCOUNT-0_Opcode-QUERY_QDCOUNT-1_QR-1_RA-1_RCODE-NOERROR_RD-0_TC-0 <= 0.50
|   |--- baseline_A_ANY_QUERY_AA_TC_RD_RA---AA-0_ANCOUNT-3_ARCOUNT-0_NSCOUNT-0_Opcode-QUERY_QDCOUNT-1_QR-1_RA-1_RCODE-NOERROR_RD-1_TC-0 <= 0.50
|   |   |--- baseline_A_CH_QUERY_RD_RA---AA-0_ANCOUNT-0_ARCOUNT-0_NSCOUNT-0_Opcode-QUERY_QDCOUNT-1_QR-1_RA-0_RCODE-REFUSED_RD-1_TC-0 <= 0.50
|   |   |   |--- baseline_A_ANY_QUERY_RD---AA-0_ANCOUNT-3_ARCOUNT-0_NSCOUNT-0_Opcode-QUERY_QDCOUNT-1_QR-1_RA-1_RCODE-NOERROR_RD-1_TC-0 <= 0.50
|   |   |   |   |--- baseline_A_HS_QUERY_AA---AA-1_ANCOUNT-0_ARCOUNT-0_NSCOUNT-0_Opcode-QUERY_QDCOUNT-0_QR-1_RA-0_RCODE-REFUSED_RD-0_TC-0 <= 0.50
|   |   |   |   |   |--- baseline_A_ANY_STATUS_RD_RA---AA-0_ANCOUNT-0_ARCOUNT-0_NSCOUNT-0_Opcode-STATUS_QDCOUNT-1_QR-1_RA-1_RCODE-SERVFAIL_RD-1_TC-0 <= 0.50
|   |   |   |   |   |   |--- baseline_A_ANY_IQUERY_AA_RD---AA-0_ANCOUNT-0_ARCOUNT-0_NSCOUNT-0_Opcode-IQUERY_QDCOUNT-1_QR-1_RA-1_RCODE-REFUSED_RD-1_TC-0 <= 0.50
|   |   |   |   |   |   |   |--- baseline_A_RESERVED0_QUERY_AA_TC---AA-0_ANCOUNT-0_ARCOUNT-0_NSCOUNT-0_Opcode-QUERY_QDCOUNT-1_QR-1_RA-1_RCODE-REFUSED_RD-0_TC-0 <= 0.50
|   |   |   |   |   |   |   |   |--- baseline_A_ANY_QUERY_AA_TC---error-Timeout after 5 seconds <= 0.50
|   |   |   |   |   |   |   |   |   |--- baseline_A_RESERVED0_NOTIFY_AA_TC---AA-1_ANCOUNT-0_ARCOUNT-0_NSCOUNT-0_Opcode-NOTIFY_QDCOUNT-1_QR-1_RA-0_RCODE-FORMERR_RD-0_TC-0 <= 0.50
|   |   |   |   |   |   |   |   |   |   |--- baseline_A_IN_STATUS_RD---AA-0_ANCOUNT-3_ARCOUNT-0_NSCOUNT-0_Opcode-STATUS_QDCOUNT-1_QR-1_RA-1_RCODE-NOERROR_RD-1_TC-0 <= 0.50
|   |   |   |   |   |   |   |   |   |   |   |--- baseline_A_HS_IQUERY_QR_AA_RD---error-A DNS query response does not respond to the question asked. <= 0.50
|   |   |   |   |   |   |   |   |   |   |   |   |--- baseline_A_IN_QUERY_TC_RD---AA-0_ANCOUNT-3_ARCOUNT-0_NSCOUNT-0_Opcode-QUERY_QDCOUNT-1_QR-1_RA-1_RCODE-NOERROR_RD-1_TC-0 <= 0.50
|   |   |   |   |   |   |   |   |   |   |   |   |   |--- baseline_A_ANY_IQUERY_RD_RA---AA-0_ANCOUNT-0_ARCOUNT-0_NSCOUNT-0_Opcode-IQUERY_QDCOUNT-0_QR-1_RA-0_RCODE-NOTIMP_RD-0_TC-0 <= 0.50
|   |   |   |   |   |   |   |   |   |   |   |   |   |   |--- baseline_A_CH_QUERY_AA_RD_RA---error-Timeout after 5 seconds <= 0.50
|   |   |   |   |   |   |   |   |   |   |   |   |   |   |   |--- baseline_A_NONE_QUERY_TC_RD_RA---AA-0_ANCOUNT-0_ARCOUNT-0_NSCOUNT-0_Opcode-QUERY_QDCOUNT-1_QR-1_RA-0_RCODE-REFUSED_RD-1_TC-0 <= 0.50
|   |   |   |   |   |   |   |   |   |   |   |   |   |   |   |   |--- class: technitium-6.2
|   |   |   |   |   |   |   |   |   |   |   |   |   |   |   |--- baseline_A_NONE_QUERY_TC_RD_RA---AA-0_ANCOUNT-0_ARCOUNT-0_NSCOUNT-0_Opcode-QUERY_QDCOUNT-1_QR-1_RA-0_RCODE-REFUSED_RD-1_TC-0 >  0.50
|   |   |   |   |   |   |   |   |   |   |   |   |   |   |   |   |--- class: bind9-9.10
|   |   |   |   |   |   |   |   |   |   |   |   |   |   |--- baseline_A_CH_QUERY_AA_RD_RA---error-Timeout after 5 seconds >  0.50
|   |   |   |   |   |   |   |   |   |   |   |   |   |   |   |--- class: bind9-9.10|bind9-9.11
|   |   |   |   |   |   |   |   |   |   |   |   |   |--- baseline_A_ANY_IQUERY_RD_RA---AA-0_ANCOUNT-0_ARCOUNT-0_NSCOUNT-0_Opcode-IQUERY_QDCOUNT-0_QR-1_RA-0_RCODE-NOTIMP_RD-0_TC-0 >  0.50
|   |   |   |   |   |   |   |   |   |   |   |   |   |   |--- class: bind9-9.11
|   |   |   |   |   |   |   |   |   |   |   |   |--- baseline_A_IN_QUERY_TC_RD---AA-0_ANCOUNT-3_ARCOUNT-0_NSCOUNT-0_Opcode-QUERY_QDCOUNT-1_QR-1_RA-1_RCODE-NOERROR_RD-1_TC-0 >  0.50
|   |   |   |   |   |   |   |   |   |   |   |   |   |--- baseline_A_IN_QUERY_AA_RD_RA---AA-0_ANCOUNT-3_ARCOUNT-0_NSCOUNT-0_Opcode-QUERY_QDCOUNT-1_QR-1_RA-1_RCODE-NOERROR_RD-1_TC-0 <= 0.50
|   |   |   |   |   |   |   |   |   |   |   |   |   |   |--- class: technitium-6.1
|   |   |   |   |   |   |   |   |   |   |   |   |   |--- baseline_A_IN_QUERY_AA_RD_RA---AA-0_ANCOUNT-3_ARCOUNT-0_NSCOUNT-0_Opcode-QUERY_QDCOUNT-1_QR-1_RA-1_RCODE-NOERROR_RD-1_TC-0 >  0.50
|   |   |   |   |   |   |   |   |   |   |   |   |   |   |--- class: technitium-6.1|technitium-6.2|technitium-6.3
|   |   |   |   |   |   |   |   |   |   |   |--- baseline_A_HS_IQUERY_QR_AA_RD---error-A DNS query response does not respond to the question asked. >  0.50
|   |   |   |   |   |   |   |   |   |   |   |   |--- class: technitium-6.4
|   |   |   |   |   |   |   |   |   |   |--- baseline_A_IN_STATUS_RD---AA-0_ANCOUNT-3_ARCOUNT-0_NSCOUNT-0_Opcode-STATUS_QDCOUNT-1_QR-1_RA-1_RCODE-NOERROR_RD-1_TC-0 >  0.50
|   |   |   |   |   |   |   |   |   |   |   |--- class: knot-resolver-2.0|knot-resolver-2.1|knot-resolver-2.2|knot-resolver-2.3|knot-resolver-3.2|knot-resolver-4.0
|   |   |   |   |   |   |   |   |   |--- baseline_A_RESERVED0_NOTIFY_AA_TC---AA-1_ANCOUNT-0_ARCOUNT-0_NSCOUNT-0_Opcode-NOTIFY_QDCOUNT-1_QR-1_RA-0_RCODE-FORMERR_RD-0_TC-0 >  0.50
|   |   |   |   |   |   |   |   |   |   |--- class: unbound-1.7
|   |   |   |   |   |   |   |   |--- baseline_A_ANY_QUERY_AA_TC---error-Timeout after 5 seconds >  0.50
|   |   |   |   |   |   |   |   |   |--- baseline_A_CH_QUERY_AA_TC_RD_RA---AA-1_ANCOUNT-0_ARCOUNT-0_NSCOUNT-0_Opcode-QUERY_QDCOUNT-1_QR-1_RA-1_RCODE-SERVFAIL_RD-1_TC-1 <= 0.50
|   |   |   |   |   |   |   |   |   |   |--- baseline_A_HS_QUERY_AA_RD---AA-1_ANCOUNT-0_ARCOUNT-0_NSCOUNT-0_Opcode-QUERY_QDCOUNT-1_QR-1_RA-0_RCODE-SERVFAIL_RD-1_TC-0 <= 0.50
|   |   |   |   |   |   |   |   |   |   |   |--- baseline_A_NONE_QUERY_AA_RD---error-A DNS query response does not respond to the question asked. <= 0.50
|   |   |   |   |   |   |   |   |   |   |   |   |--- baseline_A_RESERVED0_QUERY_RD_RA---error-Timeout after 5 seconds <= 0.50
|   |   |   |   |   |   |   |   |   |   |   |   |   |--- class: maradns-3.5
|   |   |   |   |   |   |   |   |   |   |   |   |--- baseline_A_RESERVED0_QUERY_RD_RA---error-Timeout after 5 seconds >  0.50
|   |   |   |   |   |   |   |   |   |   |   |   |   |--- class: windows-server:2019
|   |   |   |   |   |   |   |   |   |   |   |--- baseline_A_NONE_QUERY_AA_RD---error-A DNS query response does not respond to the question asked. >  0.50
|   |   |   |   |   |   |   |   |   |   |   |   |--- baseline_A_HS_QUERY_AA_RD_RA---AA-1_ANCOUNT-0_ARCOUNT-0_NSCOUNT-0_Opcode-QUERY_QDCOUNT-1_QR-1_RA-1_RCODE-SERVFAIL_RD-1_TC-0 <= 0.50
|   |   |   |   |   |   |   |   |   |   |   |   |   |--- baseline_A_IN_QUERY_AA_TC_RD---AA-1_ANCOUNT-0_ARCOUNT-0_NSCOUNT-0_Opcode-QUERY_QDCOUNT-1_QR-1_RA-0_RCODE-SERVFAIL_RD-1_TC-1 <= 0.50
|   |   |   |   |   |   |   |   |   |   |   |   |   |   |--- baseline_A_RESERVED0_QUERY_RD_RA---error-A DNS query response does not respond to the question asked. <= 0.50
|   |   |   |   |   |   |   |   |   |   |   |   |   |   |   |--- class: maradns-3.5
|   |   |   |   |   |   |   |   |   |   |   |   |   |   |--- baseline_A_RESERVED0_QUERY_RD_RA---error-A DNS query response does not respond to the question asked. >  0.50
|   |   |   |   |   |   |   |   |   |   |   |   |   |   |   |--- class: maradns-2.0|maradns-3.3|maradns-3.4|maradns-3.5
|   |   |   |   |   |   |   |   |   |   |   |   |   |--- baseline_A_IN_QUERY_AA_TC_RD---AA-1_ANCOUNT-0_ARCOUNT-0_NSCOUNT-0_Opcode-QUERY_QDCOUNT-1_QR-1_RA-0_RCODE-SERVFAIL_RD-1_TC-1 >  0.50
|   |   |   |   |   |   |   |   |   |   |   |   |   |   |--- class: maradns-3.5
|   |   |   |   |   |   |   |   |   |   |   |   |--- baseline_A_HS_QUERY_AA_RD_RA---AA-1_ANCOUNT-0_ARCOUNT-0_NSCOUNT-0_Opcode-QUERY_QDCOUNT-1_QR-1_RA-1_RCODE-SERVFAIL_RD-1_TC-0 >  0.50
|   |   |   |   |   |   |   |   |   |   |   |   |   |--- class: maradns-3.5
|   |   |   |   |   |   |   |   |   |   |--- baseline_A_HS_QUERY_AA_RD---AA-1_ANCOUNT-0_ARCOUNT-0_NSCOUNT-0_Opcode-QUERY_QDCOUNT-1_QR-1_RA-0_RCODE-SERVFAIL_RD-1_TC-0 >  0.50
|   |   |   |   |   |   |   |   |   |   |   |--- class: maradns-3.5
|   |   |   |   |   |   |   |   |   |--- baseline_A_CH_QUERY_AA_TC_RD_RA---AA-1_ANCOUNT-0_ARCOUNT-0_NSCOUNT-0_Opcode-QUERY_QDCOUNT-1_QR-1_RA-1_RCODE-SERVFAIL_RD-1_TC-1 >  0.50
|   |   |   |   |   |   |   |   |   |   |--- class: maradns-3.5
|   |   |   |   |   |   |   |--- baseline_A_RESERVED0_QUERY_AA_TC---AA-0_ANCOUNT-0_ARCOUNT-0_NSCOUNT-0_Opcode-QUERY_QDCOUNT-1_QR-1_RA-1_RCODE-REFUSED_RD-0_TC-0 >  0.50
|   |   |   |   |   |   |   |   |--- baseline_A_IN_QUERY_TC_RA---AA-0_ANCOUNT-0_ARCOUNT-0_NSCOUNT-0_Opcode-QUERY_QDCOUNT-1_QR-1_RA-0_RCODE-REFUSED_RD-0_TC-0 <= 0.50
|   |   |   |   |   |   |   |   |   |--- baseline_A_NONE_STATUS_QR_AA---error-Timeout after 5 seconds <= 0.50
|   |   |   |   |   |   |   |   |   |   |--- class: technitium-7.0
|   |   |   |   |   |   |   |   |   |--- baseline_A_NONE_STATUS_QR_AA---error-Timeout after 5 seconds >  0.50
|   |   |   |   |   |   |   |   |   |   |--- baseline_A_IN_QUERY_AA_RD_RA---AA-0_ANCOUNT-3_ARCOUNT-0_NSCOUNT-0_Opcode-QUERY_QDCOUNT-1_QR-1_RA-1_RCODE-NOERROR_RD-1_TC-0 <= 0.50
|   |   |   |   |   |   |   |   |   |   |   |--- baseline_A_IN_QUERY_TC_RD_RA---AA-0_ANCOUNT-0_ARCOUNT-0_NSCOUNT-0_Opcode-QUERY_QDCOUNT-1_QR-1_RA-1_RCODE-SERVFAIL_RD-1_TC-0 <= 0.50
|   |   |   |   |   |   |   |   |   |   |   |   |--- baseline_A_IN_QUERY_AA_TC_RD_RA---AA-0_ANCOUNT-0_ARCOUNT-0_NSCOUNT-0_Opcode-QUERY_QDCOUNT-1_QR-1_RA-1_RCODE-SERVFAIL_RD-1_TC-0 <= 0.50
|   |   |   |   |   |   |   |   |   |   |   |   |   |--- baseline_A_IN_QUERY_AA_TC_RD---AA-0_ANCOUNT-3_ARCOUNT-0_NSCOUNT-0_Opcode-QUERY_QDCOUNT-1_QR-1_RA-1_RCODE-NOERROR_RD-1_TC-0 <= 0.50
|   |   |   |   |   |   |   |   |   |   |   |   |   |   |--- class: technitium-8.1
|   |   |   |   |   |   |   |   |   |   |   |   |   |--- baseline_A_IN_QUERY_AA_TC_RD---AA-0_ANCOUNT-3_ARCOUNT-0_NSCOUNT-0_Opcode-QUERY_QDCOUNT-1_QR-1_RA-1_RCODE-NOERROR_RD-1_TC-0 >  0.50
|   |   |   |   |   |   |   |   |   |   |   |   |   |   |--- class: technitium-8.0|technitium-8.1
|   |   |   |   |   |   |   |   |   |   |   |   |--- baseline_A_IN_QUERY_AA_TC_RD_RA---AA-0_ANCOUNT-0_ARCOUNT-0_NSCOUNT-0_Opcode-QUERY_QDCOUNT-1_QR-1_RA-1_RCODE-SERVFAIL_RD-1_TC-0 >  0.50
|   |   |   |   |   |   |   |   |   |   |   |   |   |--- class: technitium-11.3
|   |   |   |   |   |   |   |   |   |   |   |--- baseline_A_IN_QUERY_TC_RD_RA---AA-0_ANCOUNT-0_ARCOUNT-0_NSCOUNT-0_Opcode-QUERY_QDCOUNT-1_QR-1_RA-1_RCODE-SERVFAIL_RD-1_TC-0 >  0.50
|   |   |   |   |   |   |   |   |   |   |   |   |--- class: technitium-10.0|technitium-11.4
|   |   |   |   |   |   |   |   |   |   |--- baseline_A_IN_QUERY_AA_RD_RA---AA-0_ANCOUNT-3_ARCOUNT-0_NSCOUNT-0_Opcode-QUERY_QDCOUNT-1_QR-1_RA-1_RCODE-NOERROR_RD-1_TC-0 >  0.50
|   |   |   |   |   |   |   |   |   |   |   |--- baseline_A_IN_QUERY_RD_RA---AA-0_ANCOUNT-3_ARCOUNT-0_NSCOUNT-0_Opcode-QUERY_QDCOUNT-1_QR-1_RA-1_RCODE-NOERROR_RD-1_TC-0 <= 0.50
|   |   |   |   |   |   |   |   |   |   |   |   |--- baseline_A_IN_QUERY_AA_RD---AA-0_ANCOUNT-3_ARCOUNT-0_NSCOUNT-0_Opcode-QUERY_QDCOUNT-1_QR-1_RA-1_RCODE-NOERROR_RD-1_TC-0 <= 0.50
|   |   |   |   |   |   |   |   |   |   |   |   |   |--- class: technitium-10.0|technitium-11.1
|   |   |   |   |   |   |   |   |   |   |   |   |--- baseline_A_IN_QUERY_AA_RD---AA-0_ANCOUNT-3_ARCOUNT-0_NSCOUNT-0_Opcode-QUERY_QDCOUNT-1_QR-1_RA-1_RCODE-NOERROR_RD-1_TC-0 >  0.50
|   |   |   |   |   |   |   |   |   |   |   |   |   |--- baseline_A_IN_QUERY_RD_RA---AA-0_ANCOUNT-0_ARCOUNT-0_NSCOUNT-0_Opcode-QUERY_QDCOUNT-1_QR-1_RA-1_RCODE-SERVFAIL_RD-1_TC-0 <= 0.50
|   |   |   |   |   |   |   |   |   |   |   |   |   |   |--- baseline_A_IN_QUERY_TC_RD---AA-0_ANCOUNT-3_ARCOUNT-0_NSCOUNT-0_Opcode-QUERY_QDCOUNT-1_QR-1_RA-1_RCODE-NOERROR_RD-1_TC-0 <= 0.50
|   |   |   |   |   |   |   |   |   |   |   |   |   |   |   |--- class: technitium-8.0
|   |   |   |   |   |   |   |   |   |   |   |   |   |   |--- baseline_A_IN_QUERY_TC_RD---AA-0_ANCOUNT-3_ARCOUNT-0_NSCOUNT-0_Opcode-QUERY_QDCOUNT-1_QR-1_RA-1_RCODE-NOERROR_RD-1_TC-0 >  0.50
|   |   |   |   |   |   |   |   |   |   |   |   |   |   |   |--- class: technitium-8.1
|   |   |   |   |   |   |   |   |   |   |   |   |   |--- baseline_A_IN_QUERY_RD_RA---AA-0_ANCOUNT-0_ARCOUNT-0_NSCOUNT-0_Opcode-QUERY_QDCOUNT-1_QR-1_RA-1_RCODE-SERVFAIL_RD-1_TC-0 >  0.50
|   |   |   |   |   |   |   |   |   |   |   |   |   |   |--- baseline_A_IN_QUERY_TC_RD---AA-0_ANCOUNT-3_ARCOUNT-0_NSCOUNT-0_Opcode-QUERY_QDCOUNT-1_QR-1_RA-1_RCODE-NOERROR_RD-1_TC-0 <= 0.50
|   |   |   |   |   |   |   |   |   |   |   |   |   |   |   |--- class: technitium-11.4
|   |   |   |   |   |   |   |   |   |   |   |   |   |   |--- baseline_A_IN_QUERY_TC_RD---AA-0_ANCOUNT-3_ARCOUNT-0_NSCOUNT-0_Opcode-QUERY_QDCOUNT-1_QR-1_RA-1_RCODE-NOERROR_RD-1_TC-0 >  0.50
|   |   |   |   |   |   |   |   |   |   |   |   |   |   |   |--- class: technitium-11.5
|   |   |   |   |   |   |   |   |   |   |   |--- baseline_A_IN_QUERY_RD_RA---AA-0_ANCOUNT-3_ARCOUNT-0_NSCOUNT-0_Opcode-QUERY_QDCOUNT-1_QR-1_RA-1_RCODE-NOERROR_RD-1_TC-0 >  0.50
|   |   |   |   |   |   |   |   |   |   |   |   |--- baseline_A_IN_QUERY_AA_TC_RD_RA---AA-0_ANCOUNT-3_ARCOUNT-0_NSCOUNT-0_Opcode-QUERY_QDCOUNT-1_QR-1_RA-1_RCODE-NOERROR_RD-1_TC-0 <= 0.50
|   |   |   |   |   |   |   |   |   |   |   |   |   |--- baseline_A_IN_QUERY_AA_TC_RD_RA---AA-0_ANCOUNT-0_ARCOUNT-0_NSCOUNT-0_Opcode-QUERY_QDCOUNT-1_QR-1_RA-1_RCODE-SERVFAIL_RD-1_TC-0 <= 0.50
|   |   |   |   |   |   |   |   |   |   |   |   |   |   |--- baseline_A_IN_QUERY_RD---AA-0_ANCOUNT-3_ARCOUNT-0_NSCOUNT-0_Opcode-QUERY_QDCOUNT-1_QR-1_RA-1_RCODE-NOERROR_RD-1_TC-0 <= 0.50
|   |   |   |   |   |   |   |   |   |   |   |   |   |   |   |--- class: technitium-9.1
|   |   |   |   |   |   |   |   |   |   |   |   |   |   |--- baseline_A_IN_QUERY_RD---AA-0_ANCOUNT-3_ARCOUNT-0_NSCOUNT-0_Opcode-QUERY_QDCOUNT-1_QR-1_RA-1_RCODE-NOERROR_RD-1_TC-0 >  0.50
|   |   |   |   |   |   |   |   |   |   |   |   |   |   |   |--- class: technitium-9.0
|   |   |   |   |   |   |   |   |   |   |   |   |   |--- baseline_A_IN_QUERY_AA_TC_RD_RA---AA-0_ANCOUNT-0_ARCOUNT-0_NSCOUNT-0_Opcode-QUERY_QDCOUNT-1_QR-1_RA-1_RCODE-SERVFAIL_RD-1_TC-0 >  0.50
|   |   |   |   |   |   |   |   |   |   |   |   |   |   |--- baseline_A_IN_QUERY_AA_RD---AA-0_ANCOUNT-3_ARCOUNT-0_NSCOUNT-0_Opcode-QUERY_QDCOUNT-1_QR-1_RA-1_RCODE-NOERROR_RD-1_TC-0 <= 0.50
|   |   |   |   |   |   |   |   |   |   |   |   |   |   |   |--- class: technitium-6.0
|   |   |   |   |   |   |   |   |   |   |   |   |   |   |--- baseline_A_IN_QUERY_AA_RD---AA-0_ANCOUNT-3_ARCOUNT-0_NSCOUNT-0_Opcode-QUERY_QDCOUNT-1_QR-1_RA-1_RCODE-NOERROR_RD-1_TC-0 >  0.50
|   |   |   |   |   |   |   |   |   |   |   |   |   |   |   |--- class: technitium-11.5
|   |   |   |   |   |   |   |   |   |   |   |   |--- baseline_A_IN_QUERY_AA_TC_RD_RA---AA-0_ANCOUNT-3_ARCOUNT-0_NSCOUNT-0_Opcode-QUERY_QDCOUNT-1_QR-1_RA-1_RCODE-NOERROR_RD-1_TC-0 >  0.50
|   |   |   |   |   |   |   |   |   |   |   |   |   |--- baseline_A_IN_QUERY_AA_TC_RD---AA-0_ANCOUNT-3_ARCOUNT-0_NSCOUNT-0_Opcode-QUERY_QDCOUNT-1_QR-1_RA-1_RCODE-NOERROR_RD-1_TC-0 <= 0.50
|   |   |   |   |   |   |   |   |   |   |   |   |   |   |--- baseline_A_IN_QUERY_RD---AA-0_ANCOUNT-0_ARCOUNT-0_NSCOUNT-0_Opcode-QUERY_QDCOUNT-1_QR-1_RA-1_RCODE-SERVFAIL_RD-1_TC-0 <= 0.50
|   |   |   |   |   |   |   |   |   |   |   |   |   |   |   |--- class: technitium-11.5
|   |   |   |   |   |   |   |   |   |   |   |   |   |   |--- baseline_A_IN_QUERY_RD---AA-0_ANCOUNT-0_ARCOUNT-0_NSCOUNT-0_Opcode-QUERY_QDCOUNT-1_QR-1_RA-1_RCODE-SERVFAIL_RD-1_TC-0 >  0.50
|   |   |   |   |   |   |   |   |   |   |   |   |   |   |   |--- class: technitium-11.1
|   |   |   |   |   |   |   |   |   |   |   |   |   |--- baseline_A_IN_QUERY_AA_TC_RD---AA-0_ANCOUNT-3_ARCOUNT-0_NSCOUNT-0_Opcode-QUERY_QDCOUNT-1_QR-1_RA-1_RCODE-NOERROR_RD-1_TC-0 >  0.50
|   |   |   |   |   |   |   |   |   |   |   |   |   |   |--- baseline_A_IN_QUERY_AA_RD---AA-0_ANCOUNT-0_ARCOUNT-0_NSCOUNT-0_Opcode-QUERY_QDCOUNT-1_QR-1_RA-1_RCODE-SERVFAIL_RD-1_TC-0 <= 0.50
|   |   |   |   |   |   |   |   |   |   |   |   |   |   |   |--- baseline_A_IN_QUERY_TC_RD---AA-0_ANCOUNT-0_ARCOUNT-1_NSCOUNT-0_Opcode-QUERY_QDCOUNT-1_QR-1_RA-1_RCODE-SERVFAIL_RD-1_TC-0 <= 0.50
|   |   |   |   |   |   |   |   |   |   |   |   |   |   |   |   |--- baseline_A_IN_QUERY_TC_RD_RA---AA-0_ANCOUNT-0_ARCOUNT-0_NSCOUNT-0_Opcode-QUERY_QDCOUNT-1_QR-1_RA-1_RCODE-SERVFAIL_RD-1_TC-0 <= 0.50
|   |   |   |   |   |   |   |   |   |   |   |   |   |   |   |   |   |--- class: technitium-10.0|technitium-11.0|technitium-11.1|technitium-11.2|technitium-11.3|technitium-11.4|technitium-11.5|technitium-12.0|technitium-12.1|technitium-5.6|technitium-6.0|technitium-7.1|technitium-8.0|technitium-8.1|technitium-9.0|technitium-9.1
|   |   |   |   |   |   |   |   |   |   |   |   |   |   |   |   |--- baseline_A_IN_QUERY_TC_RD_RA---AA-0_ANCOUNT-0_ARCOUNT-0_NSCOUNT-0_Opcode-QUERY_QDCOUNT-1_QR-1_RA-1_RCODE-SERVFAIL_RD-1_TC-0 >  0.50
|   |   |   |   |   |   |   |   |   |   |   |   |   |   |   |   |   |--- class: technitium-5.6
|   |   |   |   |   |   |   |   |   |   |   |   |   |   |   |--- baseline_A_IN_QUERY_TC_RD---AA-0_ANCOUNT-0_ARCOUNT-1_NSCOUNT-0_Opcode-QUERY_QDCOUNT-1_QR-1_RA-1_RCODE-SERVFAIL_RD-1_TC-0 >  0.50
|   |   |   |   |   |   |   |   |   |   |   |   |   |   |   |   |--- class: technitium-8.1
|   |   |   |   |   |   |   |   |   |   |   |   |   |   |--- baseline_A_IN_QUERY_AA_RD---AA-0_ANCOUNT-0_ARCOUNT-0_NSCOUNT-0_Opcode-QUERY_QDCOUNT-1_QR-1_RA-1_RCODE-SERVFAIL_RD-1_TC-0 >  0.50
|   |   |   |   |   |   |   |   |   |   |   |   |   |   |   |--- class: technitium-11.5
|   |   |   |   |   |   |   |   |--- baseline_A_IN_QUERY_TC_RA---AA-0_ANCOUNT-0_ARCOUNT-0_NSCOUNT-0_Opcode-QUERY_QDCOUNT-1_QR-1_RA-0_RCODE-REFUSED_RD-0_TC-0 >  0.50
|   |   |   |   |   |   |   |   |   |--- baseline_A_IN_QUERY_AA_TC_RD_RA---AA-0_ANCOUNT-0_ARCOUNT-0_NSCOUNT-0_Opcode-QUERY_QDCOUNT-1_QR-1_RA-1_RCODE-SERVFAIL_RD-1_TC-0 <= 0.50
|   |   |   |   |   |   |   |   |   |   |--- baseline_A_HS_NOTIFY_RD_RA---AA-0_ANCOUNT-0_ARCOUNT-0_NSCOUNT-0_Opcode-NOTIFY_QDCOUNT-1_QR-1_RA-1_RCODE-REFUSED_RD-1_TC-0 <= 0.50
|   |   |   |   |   |   |   |   |   |   |   |--- baseline_A_IN_QUERY_TC_RD_RA---AA-0_ANCOUNT-3_ARCOUNT-0_NSCOUNT-0_Opcode-QUERY_QDCOUNT-1_QR-1_RA-1_RCODE-NOERROR_RD-1_TC-0 <= 0.50
|   |   |   |   |   |   |   |   |   |   |   |   |--- class: technitium-5.1
|   |   |   |   |   |   |   |   |   |   |   |--- baseline_A_IN_QUERY_TC_RD_RA---AA-0_ANCOUNT-3_ARCOUNT-0_NSCOUNT-0_Opcode-QUERY_QDCOUNT-1_QR-1_RA-1_RCODE-NOERROR_RD-1_TC-0 >  0.50
|   |   |   |   |   |   |   |   |   |   |   |   |--- class: technitium-5.0|technitium-5.1|technitium-5.2|technitium-5.3|technitium-5.4|technitium-5.5
|   |   |   |   |   |   |   |   |   |   |--- baseline_A_HS_NOTIFY_RD_RA---AA-0_ANCOUNT-0_ARCOUNT-0_NSCOUNT-0_Opcode-NOTIFY_QDCOUNT-1_QR-1_RA-1_RCODE-REFUSED_RD-1_TC-0 >  0.50
|   |   |   |   |   |   |   |   |   |   |   |--- class: technitium-2.0
|   |   |   |   |   |   |   |   |   |--- baseline_A_IN_QUERY_AA_TC_RD_RA---AA-0_ANCOUNT-0_ARCOUNT-0_NSCOUNT-0_Opcode-QUERY_QDCOUNT-1_QR-1_RA-1_RCODE-SERVFAIL_RD-1_TC-0 >  0.50
|   |   |   |   |   |   |   |   |   |   |--- baseline_A_IN_QUERY_TC_RD---AA-0_ANCOUNT-3_ARCOUNT-0_NSCOUNT-0_Opcode-QUERY_QDCOUNT-1_QR-1_RA-1_RCODE-NOERROR_RD-1_TC-0 <= 0.50
|   |   |   |   |   |   |   |   |   |   |   |--- class: technitium-5.0
|   |   |   |   |   |   |   |   |   |   |--- baseline_A_IN_QUERY_TC_RD---AA-0_ANCOUNT-3_ARCOUNT-0_NSCOUNT-0_Opcode-QUERY_QDCOUNT-1_QR-1_RA-1_RCODE-NOERROR_RD-1_TC-0 >  0.50
|   |   |   |   |   |   |   |   |   |   |   |--- class: technitium-5.2|technitium-5.3|technitium-5.5
|   |   |   |   |   |   |--- baseline_A_ANY_IQUERY_AA_RD---AA-0_ANCOUNT-0_ARCOUNT-0_NSCOUNT-0_Opcode-IQUERY_QDCOUNT-1_QR-1_RA-1_RCODE-REFUSED_RD-1_TC-0 >  0.50
|   |   |   |   |   |   |   |--- baseline_A_IN_QUERY_TC_RD_RA---error-Timeout after 5 seconds <= 0.50
|   |   |   |   |   |   |   |   |--- baseline_A_NONE_QUERY_AA_RD---error-A DNS query response does not respond to the question asked. <= 0.50
|   |   |   |   |   |   |   |   |   |--- class: technitium-1.2|technitium-1.3|technitium-2.0|technitium-2.1|technitium-2.2|technitium-2.3|technitium-2.4|technitium-3.0|technitium-3.1|technitium-3.2|technitium-3.3|technitium-4.0|technitium-4.1
|   |   |   |   |   |   |   |   |--- baseline_A_NONE_QUERY_AA_RD---error-A DNS query response does not respond to the question asked. >  0.50
|   |   |   |   |   |   |   |   |   |--- class: technitium-2.0
|   |   |   |   |   |   |   |--- baseline_A_IN_QUERY_TC_RD_RA---error-Timeout after 5 seconds >  0.50
|   |   |   |   |   |   |   |   |--- class: technitium-2.2
|   |   |   |   |   |--- baseline_A_ANY_STATUS_RD_RA---AA-0_ANCOUNT-0_ARCOUNT-0_NSCOUNT-0_Opcode-STATUS_QDCOUNT-1_QR-1_RA-1_RCODE-SERVFAIL_RD-1_TC-0 >  0.50
|   |   |   |   |   |   |--- baseline_A_RESERVED0_IQUERY---AA-0_ANCOUNT-0_ARCOUNT-0_NSCOUNT-0_Opcode-IQUERY_QDCOUNT-1_QR-1_RA-1_RCODE-REFUSED_RD-0_TC-0 <= 0.50
|   |   |   |   |   |   |   |--- class: knot-resolver-4.1
|   |   |   |   |   |   |--- baseline_A_RESERVED0_IQUERY---AA-0_ANCOUNT-0_ARCOUNT-0_NSCOUNT-0_Opcode-IQUERY_QDCOUNT-1_QR-1_RA-1_RCODE-REFUSED_RD-0_TC-0 >  0.50
|   |   |   |   |   |   |   |--- class: knot-resolver-4.2|knot-resolver-4.3|knot-resolver-5.0|knot-resolver-5.1|knot-resolver-5.2|knot-resolver-5.3|knot-resolver-5.4|knot-resolver-5.5|knot-resolver-5.6|knot-resolver-5.7
|   |   |   |   |--- baseline_A_HS_QUERY_AA---AA-1_ANCOUNT-0_ARCOUNT-0_NSCOUNT-0_Opcode-QUERY_QDCOUNT-0_QR-1_RA-0_RCODE-REFUSED_RD-0_TC-0 >  0.50
|   |   |   |   |   |--- class: unbound-1.5|unbound-1.6
|   |   |   |--- baseline_A_ANY_QUERY_RD---AA-0_ANCOUNT-3_ARCOUNT-0_NSCOUNT-0_Opcode-QUERY_QDCOUNT-1_QR-1_RA-1_RCODE-NOERROR_RD-1_TC-0 >  0.50
|   |   |   |   |--- class: unbound-1.10|unbound-1.11|unbound-1.12|unbound-1.13|unbound-1.14|unbound-1.15|unbound-1.16|unbound-1.17|unbound-1.18|unbound-1.19|unbound-1.20|unbound-1.8|unbound-1.9
|   |   |--- baseline_A_CH_QUERY_RD_RA---AA-0_ANCOUNT-0_ARCOUNT-0_NSCOUNT-0_Opcode-QUERY_QDCOUNT-1_QR-1_RA-0_RCODE-REFUSED_RD-1_TC-0 >  0.50
|   |   |   |--- baseline_A_CH_QUERY---error-Timeout after 5 seconds <= 0.50
|   |   |   |   |--- baseline_A_CH_QUERY_AA---error-Timeout after 5 seconds <= 0.50
|   |   |   |   |   |--- baseline_A_CH_IQUERY_AA---AA-0_ANCOUNT-0_ARCOUNT-0_NSCOUNT-0_Opcode-IQUERY_QDCOUNT-0_QR-1_RA-0_RCODE-NOTIMP_RD-0_TC-0 <= 0.50
|   |   |   |   |   |   |--- baseline_A_CH_QUERY_AA_TC---AA-0_ANCOUNT-0_ARCOUNT-0_NSCOUNT-0_Opcode-QUERY_QDCOUNT-1_QR-1_RA-0_RCODE-REFUSED_RD-0_TC-0 <= 0.50
|   |   |   |   |   |   |   |--- baseline_A_ANY_IQUERY_TC---AA-0_ANCOUNT-0_ARCOUNT-0_NSCOUNT-0_Opcode-IQUERY_QDCOUNT-0_QR-1_RA-0_RCODE-NOTIMP_RD-0_TC-0 <= 0.50
|   |   |   |   |   |   |   |   |--- class: bind9-9.10
|   |   |   |   |   |   |   |--- baseline_A_ANY_IQUERY_TC---AA-0_ANCOUNT-0_ARCOUNT-0_NSCOUNT-0_Opcode-IQUERY_QDCOUNT-0_QR-1_RA-0_RCODE-NOTIMP_RD-0_TC-0 >  0.50
|   |   |   |   |   |   |   |   |--- class: bind9-9.10|bind9-9.11
|   |   |   |   |   |   |--- baseline_A_CH_QUERY_AA_TC---AA-0_ANCOUNT-0_ARCOUNT-0_NSCOUNT-0_Opcode-QUERY_QDCOUNT-1_QR-1_RA-0_RCODE-REFUSED_RD-0_TC-0 >  0.50
|   |   |   |   |   |   |   |--- class: bind9-9.10|bind9-9.11
|   |   |   |   |   |--- baseline_A_CH_IQUERY_AA---AA-0_ANCOUNT-0_ARCOUNT-0_NSCOUNT-0_Opcode-IQUERY_QDCOUNT-0_QR-1_RA-0_RCODE-NOTIMP_RD-0_TC-0 >  0.50
|   |   |   |   |   |   |--- baseline_A_NONE_IQUERY_TC_RD---AA-0_ANCOUNT-0_ARCOUNT-0_NSCOUNT-0_Opcode-IQUERY_QDCOUNT-0_QR-1_RA-0_RCODE-NOTIMP_RD-1_TC-0 <= 0.50
|   |   |   |   |   |   |   |--- class: bind9-9.11
|   |   |   |   |   |   |--- baseline_A_NONE_IQUERY_TC_RD---AA-0_ANCOUNT-0_ARCOUNT-0_NSCOUNT-0_Opcode-IQUERY_QDCOUNT-0_QR-1_RA-0_RCODE-NOTIMP_RD-1_TC-0 >  0.50
|   |   |   |   |   |   |   |--- class: bind9-9.10
|   |   |   |   |--- baseline_A_CH_QUERY_AA---error-Timeout after 5 seconds >  0.50
|   |   |   |   |   |--- baseline_A_RESERVED0_NOTIFY_TC_RD---AA-0_ANCOUNT-0_ARCOUNT-0_NSCOUNT-0_Opcode-NOTIFY_QDCOUNT-1_QR-1_RA-0_RCODE-FORMERR_RD-1_TC-0 <= 0.50
|   |   |   |   |   |   |--- baseline_A_IN_QUERY_TC_RD_RA---AA-0_ANCOUNT-3_ARCOUNT-4_NSCOUNT-2_Opcode-QUERY_QDCOUNT-1_QR-1_RA-1_RCODE-NOERROR_RD-1_TC-0 <= 0.50
|   |   |   |   |   |   |   |--- class: bind9-9.10
|   |   |   |   |   |   |--- baseline_A_IN_QUERY_TC_RD_RA---AA-0_ANCOUNT-3_ARCOUNT-4_NSCOUNT-2_Opcode-QUERY_QDCOUNT-1_QR-1_RA-1_RCODE-NOERROR_RD-1_TC-0 >  0.50
|   |   |   |   |   |   |   |--- class: bind9-9.11
|   |   |   |   |   |--- baseline_A_RESERVED0_NOTIFY_TC_RD---AA-0_ANCOUNT-0_ARCOUNT-0_NSCOUNT-0_Opcode-NOTIFY_QDCOUNT-1_QR-1_RA-0_RCODE-FORMERR_RD-1_TC-0 >  0.50
|   |   |   |   |   |   |--- class: bind9-9.10
|   |   |   |--- baseline_A_CH_QUERY---error-Timeout after 5 seconds >  0.50
|   |   |   |   |--- baseline_A_CH_STATUS_TC---error-Timeout after 5 seconds <= 0.50
|   |   |   |   |   |--- baseline_A_CH_STATUS_AA_RD_RA---AA-0_ANCOUNT-0_ARCOUNT-0_NSCOUNT-0_Opcode-STATUS_QDCOUNT-0_QR-1_RA-0_RCODE-NOTIMP_RD-0_TC-0 <= 0.50
|   |   |   |   |   |   |--- baseline_A_CH_STATUS_AA_TC---error-Timeout after 5 seconds <= 0.50
|   |   |   |   |   |   |   |--- class: bind9-9.10|bind9-9.11
|   |   |   |   |   |   |--- baseline_A_CH_STATUS_AA_TC---error-Timeout after 5 seconds >  0.50
|   |   |   |   |   |   |   |--- baseline_A_CH_STATUS_TC_RA---error-Timeout after 5 seconds <= 0.50
|   |   |   |   |   |   |   |   |--- class: bind9-9.10|bind9-9.11
|   |   |   |   |   |   |   |--- baseline_A_CH_STATUS_TC_RA---error-Timeout after 5 seconds >  0.50
|   |   |   |   |   |   |   |   |--- class: bind9-9.10
|   |   |   |   |   |--- baseline_A_CH_STATUS_AA_RD_RA---AA-0_ANCOUNT-0_ARCOUNT-0_NSCOUNT-0_Opcode-STATUS_QDCOUNT-0_QR-1_RA-0_RCODE-NOTIMP_RD-0_TC-0 >  0.50
|   |   |   |   |   |   |--- baseline_A_CH_STATUS_AA_RD---error-Timeout after 5 seconds <= 0.50
|   |   |   |   |   |   |   |--- baseline_A_IN_QUERY_TC_RA---AA-0_ANCOUNT-0_ARCOUNT-4_NSCOUNT-2_Opcode-QUERY_QDCOUNT-1_QR-1_RA-1_RCODE-NOERROR_RD-0_TC-0 <= 0.50
|   |   |   |   |   |   |   |   |--- class: bind9-9.10|bind9-9.11
|   |   |   |   |   |   |   |--- baseline_A_IN_QUERY_TC_RA---AA-0_ANCOUNT-0_ARCOUNT-4_NSCOUNT-2_Opcode-QUERY_QDCOUNT-1_QR-1_RA-1_RCODE-NOERROR_RD-0_TC-0 >  0.50
|   |   |   |   |   |   |   |   |--- class: bind9-9.11
|   |   |   |   |   |   |--- baseline_A_CH_STATUS_AA_RD---error-Timeout after 5 seconds >  0.50
|   |   |   |   |   |   |   |--- baseline_A_ANY_QUERY_RD---AA-0_ANCOUNT-3_ARCOUNT-4_NSCOUNT-2_Opcode-QUERY_QDCOUNT-1_QR-1_RA-1_RCODE-NOERROR_RD-1_TC-0 <= 0.50
|   |   |   |   |   |   |   |   |--- class: bind9-9.11
|   |   |   |   |   |   |   |--- baseline_A_ANY_QUERY_RD---AA-0_ANCOUNT-3_ARCOUNT-4_NSCOUNT-2_Opcode-QUERY_QDCOUNT-1_QR-1_RA-1_RCODE-NOERROR_RD-1_TC-0 >  0.50
|   |   |   |   |   |   |   |   |--- class: bind9-9.10|bind9-9.11
|   |   |   |   |--- baseline_A_CH_STATUS_TC---error-Timeout after 5 seconds >  0.50
|   |   |   |   |   |--- baseline_A_CH_IQUERY---error-Timeout after 5 seconds <= 0.50
|   |   |   |   |   |   |--- baseline_A_IN_QUERY---AA-0_ANCOUNT-0_ARCOUNT-0_NSCOUNT-2_Opcode-QUERY_QDCOUNT-1_QR-1_RA-1_RCODE-NOERROR_RD-0_TC-0 <= 0.50
|   |   |   |   |   |   |   |--- baseline_A_CH_IQUERY_AA---error-Timeout after 5 seconds <= 0.50
|   |   |   |   |   |   |   |   |--- baseline_A_CH_IQUERY_AA_TC---error-Timeout after 5 seconds <= 0.50
|   |   |   |   |   |   |   |   |   |--- class: bind9-9.10|bind9-9.11
|   |   |   |   |   |   |   |   |--- baseline_A_CH_IQUERY_AA_TC---error-Timeout after 5 seconds >  0.50
|   |   |   |   |   |   |   |   |   |--- baseline_A_CH_IQUERY_TC_RD---AA-0_ANCOUNT-0_ARCOUNT-0_NSCOUNT-0_Opcode-IQUERY_QDCOUNT-0_QR-1_RA-0_RCODE-NOTIMP_RD-0_TC-0 <= 0.50
|   |   |   |   |   |   |   |   |   |   |--- class: bind9-9.10|bind9-9.11
|   |   |   |   |   |   |   |   |   |--- baseline_A_CH_IQUERY_TC_RD---AA-0_ANCOUNT-0_ARCOUNT-0_NSCOUNT-0_Opcode-IQUERY_QDCOUNT-0_QR-1_RA-0_RCODE-NOTIMP_RD-0_TC-0 >  0.50
|   |   |   |   |   |   |   |   |   |   |--- class: bind9-9.11
|   |   |   |   |   |   |   |--- baseline_A_CH_IQUERY_AA---error-Timeout after 5 seconds >  0.50
|   |   |   |   |   |   |   |   |--- baseline_A_CH_IQUERY_RD_RA---AA-0_ANCOUNT-0_ARCOUNT-0_NSCOUNT-0_Opcode-IQUERY_QDCOUNT-0_QR-1_RA-0_RCODE-NOTIMP_RD-0_TC-0 <= 0.50
|   |   |   |   |   |   |   |   |   |--- baseline_A_ANY_STATUS---AA-0_ANCOUNT-0_ARCOUNT-0_NSCOUNT-0_Opcode-STATUS_QDCOUNT-0_QR-1_RA-0_RCODE-NOTIMP_RD-0_TC-0 <= 0.50
|   |   |   |   |   |   |   |   |   |   |--- class: bind9-9.10
|   |   |   |   |   |   |   |   |   |--- baseline_A_ANY_STATUS---AA-0_ANCOUNT-0_ARCOUNT-0_NSCOUNT-0_Opcode-STATUS_QDCOUNT-0_QR-1_RA-0_RCODE-NOTIMP_RD-0_TC-0 >  0.50
|   |   |   |   |   |   |   |   |   |   |--- class: bind9-9.11
|   |   |   |   |   |   |   |   |--- baseline_A_CH_IQUERY_RD_RA---AA-0_ANCOUNT-0_ARCOUNT-0_NSCOUNT-0_Opcode-IQUERY_QDCOUNT-0_QR-1_RA-0_RCODE-NOTIMP_RD-0_TC-0 >  0.50
|   |   |   |   |   |   |   |   |   |--- class: bind9-9.10|bind9-9.11
|   |   |   |   |   |   |--- baseline_A_IN_QUERY---AA-0_ANCOUNT-0_ARCOUNT-0_NSCOUNT-2_Opcode-QUERY_QDCOUNT-1_QR-1_RA-1_RCODE-NOERROR_RD-0_TC-0 >  0.50
|   |   |   |   |   |   |   |--- baseline_A_CH_IQUERY_TC_RD---AA-0_ANCOUNT-0_ARCOUNT-0_NSCOUNT-0_Opcode-IQUERY_QDCOUNT-0_QR-1_RA-0_RCODE-NOTIMP_RD-0_TC-0 <= 0.50
|   |   |   |   |   |   |   |   |--- baseline_A_CH_IQUERY_AA_RD---error-Timeout after 5 seconds <= 0.50
|   |   |   |   |   |   |   |   |   |--- class: bind9-9.10|bind9-9.11
|   |   |   |   |   |   |   |   |--- baseline_A_CH_IQUERY_AA_RD---error-Timeout after 5 seconds >  0.50
|   |   |   |   |   |   |   |   |   |--- class: bind9-9.11
|   |   |   |   |   |   |   |--- baseline_A_CH_IQUERY_TC_RD---AA-0_ANCOUNT-0_ARCOUNT-0_NSCOUNT-0_Opcode-IQUERY_QDCOUNT-0_QR-1_RA-0_RCODE-NOTIMP_RD-0_TC-0 >  0.50
|   |   |   |   |   |   |   |   |--- baseline_A_CH_IQUERY_RA---error-Timeout after 5 seconds <= 0.50
|   |   |   |   |   |   |   |   |   |--- class: bind9-9.10
|   |   |   |   |   |   |   |   |--- baseline_A_CH_IQUERY_RA---error-Timeout after 5 seconds >  0.50
|   |   |   |   |   |   |   |   |   |--- class: bind9-9.11
|   |   |   |   |   |--- baseline_A_CH_IQUERY---error-Timeout after 5 seconds >  0.50
|   |   |   |   |   |   |--- class: bind9-9.10|bind9-9.11
|   |--- baseline_A_ANY_QUERY_AA_TC_RD_RA---AA-0_ANCOUNT-3_ARCOUNT-0_NSCOUNT-0_Opcode-QUERY_QDCOUNT-1_QR-1_RA-1_RCODE-NOERROR_RD-1_TC-0 >  0.50
|   |   |--- baseline_A_IN_QUERY_TC---AA-0_ANCOUNT-0_ARCOUNT-4_NSCOUNT-2_Opcode-QUERY_QDCOUNT-1_QR-1_RA-1_RCODE-NOERROR_RD-0_TC-0 <= 0.50
|   |   |   |--- baseline_A_HS_NOTIFY_RA---AA-0_ANCOUNT-0_ARCOUNT-0_NSCOUNT-0_Opcode-NOTIFY_QDCOUNT-1_QR-1_RA-0_RCODE-REFUSED_RD-0_TC-0 <= 0.50
|   |   |   |   |--- baseline_A_RESERVED0_IQUERY_AA_TC_RD---error-Timeout after 5 seconds <= 0.50
|   |   |   |   |   |--- baseline_A_RESERVED0_QUERY_AA_TC_RD---AA-0_ANCOUNT-0_ARCOUNT-0_NSCOUNT-0_Opcode-QUERY_QDCOUNT-1_QR-1_RA-1_RCODE-FORMERR_RD-1_TC-0 <= 0.50
|   |   |   |   |   |   |--- baseline_A_RESERVED0_QUERY_AA_RD_RA---AA-0_ANCOUNT-0_ARCOUNT-0_NSCOUNT-0_Opcode-QUERY_QDCOUNT-1_QR-1_RA-1_RCODE-FORMERR_RD-1_TC-0 <= 0.50
|   |   |   |   |   |   |   |--- baseline_A_RESERVED0_QUERY_AA_TC_RD_RA---AA-0_ANCOUNT-0_ARCOUNT-0_NSCOUNT-0_Opcode-QUERY_QDCOUNT-1_QR-1_RA-1_RCODE-REFUSED_RD-1_TC-0 <= 0.50
|   |   |   |   |   |   |   |   |--- baseline_A_RESERVED0_QUERY_RD_RA---AA-0_ANCOUNT-0_ARCOUNT-0_NSCOUNT-0_Opcode-QUERY_QDCOUNT-1_QR-1_RA-1_RCODE-FORMERR_RD-1_TC-0 <= 0.50
|   |   |   |   |   |   |   |   |   |--- baseline_A_RESERVED0_QUERY_TC_RD_RA---AA-0_ANCOUNT-0_ARCOUNT-0_NSCOUNT-0_Opcode-QUERY_QDCOUNT-1_QR-1_RA-1_RCODE-REFUSED_RD-1_TC-0 <= 0.50
|   |   |   |   |   |   |   |   |   |   |--- class: technitium-1.1
|   |   |   |   |   |   |   |   |   |--- baseline_A_RESERVED0_QUERY_TC_RD_RA---AA-0_ANCOUNT-0_ARCOUNT-0_NSCOUNT-0_Opcode-QUERY_QDCOUNT-1_QR-1_RA-1_RCODE-REFUSED_RD-1_TC-0 >  0.50
|   |   |   |   |   |   |   |   |   |   |--- class: technitium-1.0
|   |   |   |   |   |   |   |   |--- baseline_A_RESERVED0_QUERY_RD_RA---AA-0_ANCOUNT-0_ARCOUNT-0_NSCOUNT-0_Opcode-QUERY_QDCOUNT-1_QR-1_RA-1_RCODE-FORMERR_RD-1_TC-0 >  0.50
|   |   |   |   |   |   |   |   |   |--- class: technitium-1.1
|   |   |   |   |   |   |   |--- baseline_A_RESERVED0_QUERY_AA_TC_RD_RA---AA-0_ANCOUNT-0_ARCOUNT-0_NSCOUNT-0_Opcode-QUERY_QDCOUNT-1_QR-1_RA-1_RCODE-REFUSED_RD-1_TC-0 >  0.50
|   |   |   |   |   |   |   |   |--- baseline_A_RESERVED0_QUERY_AA_RD_RA---AA-0_ANCOUNT-0_ARCOUNT-0_NSCOUNT-0_Opcode-QUERY_QDCOUNT-1_QR-1_RA-1_RCODE-REFUSED_RD-1_TC-0 <= 0.50
|   |   |   |   |   |   |   |   |   |--- class: technitium-1.0
|   |   |   |   |   |   |   |   |--- baseline_A_RESERVED0_QUERY_AA_RD_RA---AA-0_ANCOUNT-0_ARCOUNT-0_NSCOUNT-0_Opcode-QUERY_QDCOUNT-1_QR-1_RA-1_RCODE-REFUSED_RD-1_TC-0 >  0.50
|   |   |   |   |   |   |   |   |   |--- baseline_A_RESERVED0_QUERY_AA_RD---AA-0_ANCOUNT-0_ARCOUNT-0_NSCOUNT-0_Opcode-QUERY_QDCOUNT-1_QR-1_RA-1_RCODE-NOTIMP_RD-1_TC-0 <= 0.50
|   |   |   |   |   |   |   |   |   |   |--- baseline_A_RESERVED0_QUERY_TC_RD---AA-0_ANCOUNT-0_ARCOUNT-0_NSCOUNT-0_Opcode-QUERY_QDCOUNT-1_QR-1_RA-1_RCODE-FORMERR_RD-1_TC-0 <= 0.50
|   |   |   |   |   |   |   |   |   |   |   |--- class: technitium-1.1
|   |   |   |   |   |   |   |   |   |   |--- baseline_A_RESERVED0_QUERY_TC_RD---AA-0_ANCOUNT-0_ARCOUNT-0_NSCOUNT-0_Opcode-QUERY_QDCOUNT-1_QR-1_RA-1_RCODE-FORMERR_RD-1_TC-0 >  0.50
|   |   |   |   |   |   |   |   |   |   |   |--- class: technitium-1.0
|   |   |   |   |   |   |   |   |   |--- baseline_A_RESERVED0_QUERY_AA_RD---AA-0_ANCOUNT-0_ARCOUNT-0_NSCOUNT-0_Opcode-QUERY_QDCOUNT-1_QR-1_RA-1_RCODE-NOTIMP_RD-1_TC-0 >  0.50
|   |   |   |   |   |   |   |   |   |   |--- class: technitium-1.1
|   |   |   |   |   |   |--- baseline_A_RESERVED0_QUERY_AA_RD_RA---AA-0_ANCOUNT-0_ARCOUNT-0_NSCOUNT-0_Opcode-QUERY_QDCOUNT-1_QR-1_RA-1_RCODE-FORMERR_RD-1_TC-0 >  0.50
|   |   |   |   |   |   |   |--- baseline_A_RESERVED0_QUERY_RD---AA-0_ANCOUNT-0_ARCOUNT-0_NSCOUNT-0_Opcode-QUERY_QDCOUNT-1_QR-1_RA-1_RCODE-REFUSED_RD-1_TC-0 <= 0.50
|   |   |   |   |   |   |   |   |--- baseline_A_RESERVED0_QUERY_AA_RD---AA-0_ANCOUNT-0_ARCOUNT-0_NSCOUNT-0_Opcode-QUERY_QDCOUNT-1_QR-1_RA-1_RCODE-FORMERR_RD-1_TC-0 <= 0.50
|   |   |   |   |   |   |   |   |   |--- class: technitium-1.1
|   |   |   |   |   |   |   |   |--- baseline_A_RESERVED0_QUERY_AA_RD---AA-0_ANCOUNT-0_ARCOUNT-0_NSCOUNT-0_Opcode-QUERY_QDCOUNT-1_QR-1_RA-1_RCODE-FORMERR_RD-1_TC-0 >  0.50
|   |   |   |   |   |   |   |   |   |--- baseline_A_RESERVED0_QUERY_TC_RD---AA-0_ANCOUNT-0_ARCOUNT-0_NSCOUNT-0_Opcode-QUERY_QDCOUNT-1_QR-1_RA-1_RCODE-FORMERR_RD-1_TC-0 <= 0.50
|   |   |   |   |   |   |   |   |   |   |--- class: technitium-1.1
|   |   |   |   |   |   |   |   |   |--- baseline_A_RESERVED0_QUERY_TC_RD---AA-0_ANCOUNT-0_ARCOUNT-0_NSCOUNT-0_Opcode-QUERY_QDCOUNT-1_QR-1_RA-1_RCODE-FORMERR_RD-1_TC-0 >  0.50
|   |   |   |   |   |   |   |   |   |   |--- class: technitium-1.0
|   |   |   |   |   |   |   |--- baseline_A_RESERVED0_QUERY_RD---AA-0_ANCOUNT-0_ARCOUNT-0_NSCOUNT-0_Opcode-QUERY_QDCOUNT-1_QR-1_RA-1_RCODE-REFUSED_RD-1_TC-0 >  0.50
|   |   |   |   |   |   |   |   |--- baseline_A_RESERVED0_QUERY_TC_RD---AA-0_ANCOUNT-0_ARCOUNT-0_NSCOUNT-0_Opcode-QUERY_QDCOUNT-1_QR-1_RA-1_RCODE-FORMERR_RD-1_TC-0 <= 0.50
|   |   |   |   |   |   |   |   |   |--- class: technitium-1.0
|   |   |   |   |   |   |   |   |--- baseline_A_RESERVED0_QUERY_TC_RD---AA-0_ANCOUNT-0_ARCOUNT-0_NSCOUNT-0_Opcode-QUERY_QDCOUNT-1_QR-1_RA-1_RCODE-FORMERR_RD-1_TC-0 >  0.50
|   |   |   |   |   |   |   |   |   |--- baseline_A_RESERVED0_QUERY_RD_RA---AA-0_ANCOUNT-0_ARCOUNT-0_NSCOUNT-0_Opcode-QUERY_QDCOUNT-1_QR-1_RA-1_RCODE-REFUSED_RD-1_TC-0 <= 0.50
|   |   |   |   |   |   |   |   |   |   |--- class: technitium-1.0
|   |   |   |   |   |   |   |   |   |--- baseline_A_RESERVED0_QUERY_RD_RA---AA-0_ANCOUNT-0_ARCOUNT-0_NSCOUNT-0_Opcode-QUERY_QDCOUNT-1_QR-1_RA-1_RCODE-REFUSED_RD-1_TC-0 >  0.50
|   |   |   |   |   |   |   |   |   |   |--- class: technitium-1.1
|   |   |   |   |   |--- baseline_A_RESERVED0_QUERY_AA_TC_RD---AA-0_ANCOUNT-0_ARCOUNT-0_NSCOUNT-0_Opcode-QUERY_QDCOUNT-1_QR-1_RA-1_RCODE-FORMERR_RD-1_TC-0 >  0.50
|   |   |   |   |   |   |--- baseline_A_RESERVED0_QUERY_RD---AA-0_ANCOUNT-0_ARCOUNT-0_NSCOUNT-0_Opcode-QUERY_QDCOUNT-1_QR-1_RA-1_RCODE-REFUSED_RD-1_TC-0 <= 0.50
|   |   |   |   |   |   |   |--- class: technitium-1.0
|   |   |   |   |   |   |--- baseline_A_RESERVED0_QUERY_RD---AA-0_ANCOUNT-0_ARCOUNT-0_NSCOUNT-0_Opcode-QUERY_QDCOUNT-1_QR-1_RA-1_RCODE-REFUSED_RD-1_TC-0 >  0.50
|   |   |   |   |   |   |   |--- baseline_A_RESERVED0_QUERY_TC_RD_RA---AA-0_ANCOUNT-0_ARCOUNT-0_NSCOUNT-0_Opcode-QUERY_QDCOUNT-1_QR-1_RA-1_RCODE-FORMERR_RD-1_TC-0 <= 0.50
|   |   |   |   |   |   |   |   |--- baseline_A_RESERVED0_QUERY_AA_RD---AA-0_ANCOUNT-0_ARCOUNT-0_NSCOUNT-0_Opcode-QUERY_QDCOUNT-1_QR-1_RA-1_RCODE-REFUSED_RD-1_TC-0 <= 0.50
|   |   |   |   |   |   |   |   |   |--- class: technitium-1.1
|   |   |   |   |   |   |   |   |--- baseline_A_RESERVED0_QUERY_AA_RD---AA-0_ANCOUNT-0_ARCOUNT-0_NSCOUNT-0_Opcode-QUERY_QDCOUNT-1_QR-1_RA-1_RCODE-REFUSED_RD-1_TC-0 >  0.50
|   |   |   |   |   |   |   |   |   |--- baseline_A_RESERVED0_QUERY_AA_TC_RD_RA---AA-0_ANCOUNT-0_ARCOUNT-0_NSCOUNT-0_Opcode-QUERY_QDCOUNT-1_QR-1_RA-1_RCODE-REFUSED_RD-1_TC-0 <= 0.50
|   |   |   |   |   |   |   |   |   |   |--- class: technitium-1.0
|   |   |   |   |   |   |   |   |   |--- baseline_A_RESERVED0_QUERY_AA_TC_RD_RA---AA-0_ANCOUNT-0_ARCOUNT-0_NSCOUNT-0_Opcode-QUERY_QDCOUNT-1_QR-1_RA-1_RCODE-REFUSED_RD-1_TC-0 >  0.50
|   |   |   |   |   |   |   |   |   |   |--- baseline_A_RESERVED0_QUERY_TC_RD---AA-0_ANCOUNT-0_ARCOUNT-0_NSCOUNT-0_Opcode-QUERY_QDCOUNT-1_QR-1_RA-1_RCODE-FORMERR_RD-1_TC-0 <= 0.50
|   |   |   |   |   |   |   |   |   |   |   |--- baseline_A_RESERVED0_QUERY_AA_RD_RA---AA-0_ANCOUNT-0_ARCOUNT-0_NSCOUNT-0_Opcode-QUERY_QDCOUNT-1_QR-1_RA-1_RCODE-FORMERR_RD-1_TC-0 <= 0.50
|   |   |   |   |   |   |   |   |   |   |   |   |--- class: technitium-1.0
|   |   |   |   |   |   |   |   |   |   |   |--- baseline_A_RESERVED0_QUERY_AA_RD_RA---AA-0_ANCOUNT-0_ARCOUNT-0_NSCOUNT-0_Opcode-QUERY_QDCOUNT-1_QR-1_RA-1_RCODE-FORMERR_RD-1_TC-0 >  0.50
|   |   |   |   |   |   |   |   |   |   |   |   |--- class: technitium-1.1
|   |   |   |   |   |   |   |   |   |   |--- baseline_A_RESERVED0_QUERY_TC_RD---AA-0_ANCOUNT-0_ARCOUNT-0_NSCOUNT-0_Opcode-QUERY_QDCOUNT-1_QR-1_RA-1_RCODE-FORMERR_RD-1_TC-0 >  0.50
|   |   |   |   |   |   |   |   |   |   |   |--- class: technitium-1.1
|   |   |   |   |   |   |   |--- baseline_A_RESERVED0_QUERY_TC_RD_RA---AA-0_ANCOUNT-0_ARCOUNT-0_NSCOUNT-0_Opcode-QUERY_QDCOUNT-1_QR-1_RA-1_RCODE-FORMERR_RD-1_TC-0 >  0.50
|   |   |   |   |   |   |   |   |--- class: technitium-1.0
|   |   |   |   |--- baseline_A_RESERVED0_IQUERY_AA_TC_RD---error-Timeout after 5 seconds >  0.50
|   |   |   |   |   |--- class: pdns-recursor-5.0
|   |   |   |--- baseline_A_HS_NOTIFY_RA---AA-0_ANCOUNT-0_ARCOUNT-0_NSCOUNT-0_Opcode-NOTIFY_QDCOUNT-1_QR-1_RA-0_RCODE-REFUSED_RD-0_TC-0 >  0.50
|   |   |   |   |--- class: bind9-9.12
|   |   |--- baseline_A_IN_QUERY_TC---AA-0_ANCOUNT-0_ARCOUNT-4_NSCOUNT-2_Opcode-QUERY_QDCOUNT-1_QR-1_RA-1_RCODE-NOERROR_RD-0_TC-0 >  0.50
|   |   |   |--- baseline_A_CH_QUERY_RD---AA-0_ANCOUNT-0_ARCOUNT-0_NSCOUNT-0_Opcode-QUERY_QDCOUNT-1_QR-1_RA-0_RCODE-REFUSED_RD-1_TC-0 <= 0.50
|   |   |   |   |--- baseline_A_CH_QUERY_RD---AA-0_ANCOUNT-0_ARCOUNT-0_NSCOUNT-0_Opcode-QUERY_QDCOUNT-1_QR-1_RA-0_RCODE-NOTIMP_RD-1_TC-0 <= 0.50
|   |   |   |   |   |--- baseline_A_CH_IQUERY---error-Timeout after 5 seconds <= 0.50
|   |   |   |   |   |   |--- baseline_A_CH_IQUERY_AA_RD_RA---AA-0_ANCOUNT-0_ARCOUNT-0_NSCOUNT-0_Opcode-IQUERY_QDCOUNT-0_QR-1_RA-0_RCODE-NOTIMP_RD-0_TC-0 <= 0.50
|   |   |   |   |   |   |   |--- class: bind9-9.16|bind9-9.19
|   |   |   |   |   |   |--- baseline_A_CH_IQUERY_AA_RD_RA---AA-0_ANCOUNT-0_ARCOUNT-0_NSCOUNT-0_Opcode-IQUERY_QDCOUNT-0_QR-1_RA-0_RCODE-NOTIMP_RD-0_TC-0 >  0.50
|   |   |   |   |   |   |   |--- baseline_A_CH_IQUERY_AA---AA-0_ANCOUNT-0_ARCOUNT-0_NSCOUNT-0_Opcode-IQUERY_QDCOUNT-0_QR-1_RA-0_RCODE-NOTIMP_RD-0_TC-0 <= 0.50
|   |   |   |   |   |   |   |   |--- class: bind9-9.12|bind9-9.18
|   |   |   |   |   |   |   |--- baseline_A_CH_IQUERY_AA---AA-0_ANCOUNT-0_ARCOUNT-0_NSCOUNT-0_Opcode-IQUERY_QDCOUNT-0_QR-1_RA-0_RCODE-NOTIMP_RD-0_TC-0 >  0.50
|   |   |   |   |   |   |   |   |--- baseline_A_CH_IQUERY_AA_RA---error-Timeout after 5 seconds <= 0.50
|   |   |   |   |   |   |   |   |   |--- class: bind9-9.17
|   |   |   |   |   |   |   |   |--- baseline_A_CH_IQUERY_AA_RA---error-Timeout after 5 seconds >  0.50
|   |   |   |   |   |   |   |   |   |--- class: bind9-9.18|bind9-9.19
|   |   |   |   |   |--- baseline_A_CH_IQUERY---error-Timeout after 5 seconds >  0.50
|   |   |   |   |   |   |--- baseline_A_CH_QUERY_AA_TC---AA-0_ANCOUNT-0_ARCOUNT-0_NSCOUNT-0_Opcode-QUERY_QDCOUNT-1_QR-1_RA-0_RCODE-REFUSED_RD-0_TC-0 <= 0.50
|   |   |   |   |   |   |   |--- baseline_A_CH_QUERY_TC_RD---AA-0_ANCOUNT-0_ARCOUNT-0_NSCOUNT-0_Opcode-QUERY_QDCOUNT-1_QR-1_RA-0_RCODE-REFUSED_RD-1_TC-0 <= 0.50
|   |   |   |   |   |   |   |   |--- baseline_A_NONE_QUERY_RA---error-Timeout after 5 seconds <= 0.50
|   |   |   |   |   |   |   |   |   |--- class: bind9-9.12|bind9-9.14|bind9-9.16
|   |   |   |   |   |   |   |   |--- baseline_A_NONE_QUERY_RA---error-Timeout after 5 seconds >  0.50
|   |   |   |   |   |   |   |   |   |--- class: windows-server:2022
|   |   |   |   |   |   |   |--- baseline_A_CH_QUERY_TC_RD---AA-0_ANCOUNT-0_ARCOUNT-0_NSCOUNT-0_Opcode-QUERY_QDCOUNT-1_QR-1_RA-0_RCODE-REFUSED_RD-1_TC-0 >  0.50
|   |   |   |   |   |   |   |   |--- class: bind9-9.13|bind9-9.15|bind9-9.16|bind9-9.17
|   |   |   |   |   |   |--- baseline_A_CH_QUERY_AA_TC---AA-0_ANCOUNT-0_ARCOUNT-0_NSCOUNT-0_Opcode-QUERY_QDCOUNT-1_QR-1_RA-0_RCODE-REFUSED_RD-0_TC-0 >  0.50
|   |   |   |   |   |   |   |--- class: bind9-9.12|bind9-9.14|bind9-9.15|bind9-9.16|bind9-9.17|bind9-9.18|bind9-9.19
|   |   |   |   |--- baseline_A_CH_QUERY_RD---AA-0_ANCOUNT-0_ARCOUNT-0_NSCOUNT-0_Opcode-QUERY_QDCOUNT-1_QR-1_RA-0_RCODE-NOTIMP_RD-1_TC-0 >  0.50
|   |   |   |   |   |--- class: windows-server:2016|windows-server:2022
|   |   |   |--- baseline_A_CH_QUERY_RD---AA-0_ANCOUNT-0_ARCOUNT-0_NSCOUNT-0_Opcode-QUERY_QDCOUNT-1_QR-1_RA-0_RCODE-REFUSED_RD-1_TC-0 >  0.50
|   |   |   |   |--- baseline_A_CH_IQUERY---error-Timeout after 5 seconds <= 0.50
|   |   |   |   |   |--- baseline_A_CH_IQUERY_TC_RA---error-Timeout after 5 seconds <= 0.50
|   |   |   |   |   |   |--- baseline_A_CH_IQUERY_AA_RD---AA-0_ANCOUNT-0_ARCOUNT-0_NSCOUNT-0_Opcode-IQUERY_QDCOUNT-0_QR-1_RA-0_RCODE-NOTIMP_RD-0_TC-0 <= 0.50
|   |   |   |   |   |   |   |--- baseline_A_CH_QUERY_TC---AA-0_ANCOUNT-0_ARCOUNT-0_NSCOUNT-0_Opcode-QUERY_QDCOUNT-1_QR-1_RA-0_RCODE-REFUSED_RD-0_TC-0 <= 0.50
|   |   |   |   |   |   |   |   |--- class: bind9-9.12|bind9-9.13|bind9-9.15|bind9-9.16|bind9-9.17|bind9-9.18|bind9-9.19
|   |   |   |   |   |   |   |--- baseline_A_CH_QUERY_TC---AA-0_ANCOUNT-0_ARCOUNT-0_NSCOUNT-0_Opcode-QUERY_QDCOUNT-1_QR-1_RA-0_RCODE-REFUSED_RD-0_TC-0 >  0.50
|   |   |   |   |   |   |   |   |--- baseline_A_CH_QUERY_TC_RA---AA-0_ANCOUNT-0_ARCOUNT-0_NSCOUNT-0_Opcode-QUERY_QDCOUNT-1_QR-1_RA-0_RCODE-REFUSED_RD-0_TC-0 <= 0.50
|   |   |   |   |   |   |   |   |   |--- class: bind9-9.16
|   |   |   |   |   |   |   |   |--- baseline_A_CH_QUERY_TC_RA---AA-0_ANCOUNT-0_ARCOUNT-0_NSCOUNT-0_Opcode-QUERY_QDCOUNT-1_QR-1_RA-0_RCODE-REFUSED_RD-0_TC-0 >  0.50
|   |   |   |   |   |   |   |   |   |--- class: bind9-9.17
|   |   |   |   |   |   |--- baseline_A_CH_IQUERY_AA_RD---AA-0_ANCOUNT-0_ARCOUNT-0_NSCOUNT-0_Opcode-IQUERY_QDCOUNT-0_QR-1_RA-0_RCODE-NOTIMP_RD-0_TC-0 >  0.50
|   |   |   |   |   |   |   |--- baseline_A_CH_IQUERY_TC_RD---error-Timeout after 5 seconds <= 0.50
|   |   |   |   |   |   |   |   |--- baseline_A_CH_IQUERY_AA_RD_RA---AA-0_ANCOUNT-0_ARCOUNT-0_NSCOUNT-0_Opcode-IQUERY_QDCOUNT-0_QR-1_RA-0_RCODE-NOTIMP_RD-0_TC-0 <= 0.50
|   |   |   |   |   |   |   |   |   |--- baseline_A_CH_QUERY_AA---error-Timeout after 5 seconds <= 0.50
|   |   |   |   |   |   |   |   |   |   |--- baseline_A_CH_QUERY_AA_RA---AA-0_ANCOUNT-0_ARCOUNT-0_NSCOUNT-0_Opcode-QUERY_QDCOUNT-1_QR-1_RA-0_RCODE-REFUSED_RD-0_TC-0 <= 0.50
|   |   |   |   |   |   |   |   |   |   |   |--- class: bind9-9.13|bind9-9.18|bind9-9.19
|   |   |   |   |   |   |   |   |   |   |--- baseline_A_CH_QUERY_AA_RA---AA-0_ANCOUNT-0_ARCOUNT-0_NSCOUNT-0_Opcode-QUERY_QDCOUNT-1_QR-1_RA-0_RCODE-REFUSED_RD-0_TC-0 >  0.50
|   |   |   |   |   |   |   |   |   |   |   |--- class: bind9-9.13|bind9-9.16|bind9-9.17|bind9-9.18
|   |   |   |   |   |   |   |   |   |--- baseline_A_CH_QUERY_AA---error-Timeout after 5 seconds >  0.50
|   |   |   |   |   |   |   |   |   |   |--- class: bind9-9.13|bind9-9.14|bind9-9.15|bind9-9.16|bind9-9.18|bind9-9.19
|   |   |   |   |   |   |   |   |--- baseline_A_CH_IQUERY_AA_RD_RA---AA-0_ANCOUNT-0_ARCOUNT-0_NSCOUNT-0_Opcode-IQUERY_QDCOUNT-0_QR-1_RA-0_RCODE-NOTIMP_RD-0_TC-0 >  0.50
|   |   |   |   |   |   |   |   |   |--- baseline_A_CH_IQUERY_TC_RD_RA---error-Timeout after 5 seconds <= 0.50
|   |   |   |   |   |   |   |   |   |   |--- baseline_A_CH_IQUERY_RD_RA---error-Timeout after 5 seconds <= 0.50
|   |   |   |   |   |   |   |   |   |   |   |--- baseline_A_CH_IQUERY_RD---error-Timeout after 5 seconds <= 0.50
|   |   |   |   |   |   |   |   |   |   |   |   |--- baseline_A_CH_IQUERY_RA---error-Timeout after 5 seconds <= 0.50
|   |   |   |   |   |   |   |   |   |   |   |   |   |--- class: bind9-9.12|bind9-9.14|bind9-9.16|bind9-9.19
|   |   |   |   |   |   |   |   |   |   |   |   |--- baseline_A_CH_IQUERY_RA---error-Timeout after 5 seconds >  0.50
|   |   |   |   |   |   |   |   |   |   |   |   |   |--- class: bind9-9.14|bind9-9.16|bind9-9.18
|   |   |   |   |   |   |   |   |   |   |   |--- baseline_A_CH_IQUERY_RD---error-Timeout after 5 seconds >  0.50
|   |   |   |   |   |   |   |   |   |   |   |   |--- class: bind9-9.14|bind9-9.16|bind9-9.17
|   |   |   |   |   |   |   |   |   |   |--- baseline_A_CH_IQUERY_RD_RA---error-Timeout after 5 seconds >  0.50
|   |   |   |   |   |   |   |   |   |   |   |--- class: bind9-9.12|bind9-9.14|bind9-9.17|bind9-9.18|bind9-9.19
|   |   |   |   |   |   |   |   |   |--- baseline_A_CH_IQUERY_TC_RD_RA---error-Timeout after 5 seconds >  0.50
|   |   |   |   |   |   |   |   |   |   |--- class: bind9-9.16|bind9-9.18|bind9-9.19
|   |   |   |   |   |   |   |--- baseline_A_CH_IQUERY_TC_RD---error-Timeout after 5 seconds >  0.50
|   |   |   |   |   |   |   |   |--- class: bind9-9.12|bind9-9.15|bind9-9.16|bind9-9.17|bind9-9.18|bind9-9.19
|   |   |   |   |   |--- baseline_A_CH_IQUERY_TC_RA---error-Timeout after 5 seconds >  0.50
|   |   |   |   |   |   |--- baseline_A_CH_QUERY---AA-0_ANCOUNT-0_ARCOUNT-0_NSCOUNT-0_Opcode-QUERY_QDCOUNT-1_QR-1_RA-0_RCODE-REFUSED_RD-0_TC-0 <= 0.50
|   |   |   |   |   |   |   |--- class: bind9-9.12|bind9-9.13|bind9-9.16|bind9-9.17|bind9-9.18|bind9-9.19
|   |   |   |   |   |   |--- baseline_A_CH_QUERY---AA-0_ANCOUNT-0_ARCOUNT-0_NSCOUNT-0_Opcode-QUERY_QDCOUNT-1_QR-1_RA-0_RCODE-REFUSED_RD-0_TC-0 >  0.50
|   |   |   |   |   |   |   |--- class: bind9-9.16
|   |   |   |   |--- baseline_A_CH_IQUERY---error-Timeout after 5 seconds >  0.50
|   |   |   |   |   |--- baseline_A_CH_STATUS---error-Timeout after 5 seconds <= 0.50
|   |   |   |   |   |   |--- baseline_A_CH_STATUS_AA_RD---AA-0_ANCOUNT-0_ARCOUNT-0_NSCOUNT-0_Opcode-STATUS_QDCOUNT-0_QR-1_RA-0_RCODE-NOTIMP_RD-0_TC-0 <= 0.50
|   |   |   |   |   |   |   |--- class: bind9-9.12|bind9-9.13|bind9-9.14|bind9-9.16|bind9-9.17|bind9-9.18|bind9-9.19
|   |   |   |   |   |   |--- baseline_A_CH_STATUS_AA_RD---AA-0_ANCOUNT-0_ARCOUNT-0_NSCOUNT-0_Opcode-STATUS_QDCOUNT-0_QR-1_RA-0_RCODE-NOTIMP_RD-0_TC-0 >  0.50
|   |   |   |   |   |   |   |--- baseline_A_CH_STATUS_AA_RA---AA-0_ANCOUNT-0_ARCOUNT-0_NSCOUNT-0_Opcode-STATUS_QDCOUNT-0_QR-1_RA-0_RCODE-NOTIMP_RD-0_TC-0 <= 0.50
|   |   |   |   |   |   |   |   |--- class: bind9-9.12|bind9-9.14|bind9-9.15|bind9-9.16|bind9-9.17|bind9-9.18|bind9-9.19
|   |   |   |   |   |   |   |--- baseline_A_CH_STATUS_AA_RA---AA-0_ANCOUNT-0_ARCOUNT-0_NSCOUNT-0_Opcode-STATUS_QDCOUNT-0_QR-1_RA-0_RCODE-NOTIMP_RD-0_TC-0 >  0.50
|   |   |   |   |   |   |   |   |--- baseline_A_CH_STATUS_AA_TC---AA-0_ANCOUNT-0_ARCOUNT-0_NSCOUNT-0_Opcode-STATUS_QDCOUNT-0_QR-1_RA-0_RCODE-NOTIMP_RD-0_TC-0 <= 0.50
|   |   |   |   |   |   |   |   |   |--- baseline_A_CH_STATUS_TC_RA---error-Timeout after 5 seconds <= 0.50
|   |   |   |   |   |   |   |   |   |   |--- baseline_A_CH_STATUS_TC_RD---AA-0_ANCOUNT-0_ARCOUNT-0_NSCOUNT-0_Opcode-STATUS_QDCOUNT-0_QR-1_RA-0_RCODE-NOTIMP_RD-0_TC-0 <= 0.50
|   |   |   |   |   |   |   |   |   |   |   |--- class: bind9-9.13|bind9-9.14|bind9-9.15
|   |   |   |   |   |   |   |   |   |   |--- baseline_A_CH_STATUS_TC_RD---AA-0_ANCOUNT-0_ARCOUNT-0_NSCOUNT-0_Opcode-STATUS_QDCOUNT-0_QR-1_RA-0_RCODE-NOTIMP_RD-0_TC-0 >  0.50
|   |   |   |   |   |   |   |   |   |   |   |--- baseline_A_CH_STATUS_RA---error-Timeout after 5 seconds <= 0.50
|   |   |   |   |   |   |   |   |   |   |   |   |--- baseline_A_CH_STATUS_RD---error-Timeout after 5 seconds <= 0.50
|   |   |   |   |   |   |   |   |   |   |   |   |   |--- baseline_A_CH_STATUS_TC_RD_RA---AA-0_ANCOUNT-0_ARCOUNT-0_NSCOUNT-0_Opcode-STATUS_QDCOUNT-0_QR-1_RA-0_RCODE-NOTIMP_RD-0_TC-0 <= 0.50
|   |   |   |   |   |   |   |   |   |   |   |   |   |   |--- class: bind9-9.15|bind9-9.16
|   |   |   |   |   |   |   |   |   |   |   |   |   |--- baseline_A_CH_STATUS_TC_RD_RA---AA-0_ANCOUNT-0_ARCOUNT-0_NSCOUNT-0_Opcode-STATUS_QDCOUNT-0_QR-1_RA-0_RCODE-NOTIMP_RD-0_TC-0 >  0.50
|   |   |   |   |   |   |   |   |   |   |   |   |   |   |--- class: bind9-9.14|bind9-9.17|bind9-9.18|bind9-9.19
|   |   |   |   |   |   |   |   |   |   |   |   |--- baseline_A_CH_STATUS_RD---error-Timeout after 5 seconds >  0.50
|   |   |   |   |   |   |   |   |   |   |   |   |   |--- class: bind9-9.16
|   |   |   |   |   |   |   |   |   |   |   |--- baseline_A_CH_STATUS_RA---error-Timeout after 5 seconds >  0.50
|   |   |   |   |   |   |   |   |   |   |   |   |--- class: bind9-9.12|bind9-9.14|bind9-9.16|bind9-9.19
|   |   |   |   |   |   |   |   |   |--- baseline_A_CH_STATUS_TC_RA---error-Timeout after 5 seconds >  0.50
|   |   |   |   |   |   |   |   |   |   |--- class: bind9-9.12|bind9-9.13|bind9-9.16|bind9-9.17
|   |   |   |   |   |   |   |   |--- baseline_A_CH_STATUS_AA_TC---AA-0_ANCOUNT-0_ARCOUNT-0_NSCOUNT-0_Opcode-STATUS_QDCOUNT-0_QR-1_RA-0_RCODE-NOTIMP_RD-0_TC-0 >  0.50
|   |   |   |   |   |   |   |   |   |--- class: bind9-9.13|bind9-9.14|bind9-9.15|bind9-9.16|bind9-9.17|bind9-9.18
|   |   |   |   |   |--- baseline_A_CH_STATUS---error-Timeout after 5 seconds >  0.50
|   |   |   |   |   |   |--- baseline_A_CH_QUERY---error-Timeout after 5 seconds <= 0.50
|   |   |   |   |   |   |   |--- baseline_A_CH_QUERY_TC_RD_RA---error-Timeout after 5 seconds <= 0.50
|   |   |   |   |   |   |   |   |--- baseline_A_CH_QUERY_AA_TC---error-Timeout after 5 seconds <= 0.50
|   |   |   |   |   |   |   |   |   |--- class: bind9-9.12|bind9-9.16|bind9-9.17|bind9-9.18|bind9-9.19
|   |   |   |   |   |   |   |   |--- baseline_A_CH_QUERY_AA_TC---error-Timeout after 5 seconds >  0.50
|   |   |   |   |   |   |   |   |   |--- baseline_A_CH_QUERY_AA---error-Timeout after 5 seconds <= 0.50
|   |   |   |   |   |   |   |   |   |   |--- class: bind9-9.12|bind9-9.16|bind9-9.17
|   |   |   |   |   |   |   |   |   |--- baseline_A_CH_QUERY_AA---error-Timeout after 5 seconds >  0.50
|   |   |   |   |   |   |   |   |   |   |--- class: bind9-9.13|bind9-9.15|bind9-9.16|bind9-9.17|bind9-9.18|bind9-9.19
|   |   |   |   |   |   |   |--- baseline_A_CH_QUERY_TC_RD_RA---error-Timeout after 5 seconds >  0.50
|   |   |   |   |   |   |   |   |--- class: bind9-9.13|bind9-9.14|bind9-9.16|bind9-9.17|bind9-9.18
|   |   |   |   |   |   |--- baseline_A_CH_QUERY---error-Timeout after 5 seconds >  0.50
|   |   |   |   |   |   |   |--- class: bind9-9.12|bind9-9.13|bind9-9.14|bind9-9.15|bind9-9.16|bind9-9.17|bind9-9.18|bind9-9.19
|--- baseline_A_ANY_QUERY_AA_TC---AA-0_ANCOUNT-0_ARCOUNT-0_NSCOUNT-0_Opcode-QUERY_QDCOUNT-1_QR-1_RA-1_RCODE-NOERROR_RD-0_TC-0 >  0.50
|   |--- class: pdns-recursor-4.0|pdns-recursor-4.1|pdns-recursor-4.2|pdns-recursor-4.3|pdns-recursor-4.4|pdns-recursor-4.5|pdns-recursor-4.6|pdns-recursor-4.7|pdns-recursor-4.8|pdns-recursor-4.9|pdns-recursor-5.0
